digraph Tree {
node [shape=box] ;
0 [label="Sex_female <= 0.5\ngini = 0.472\nsamples = 620\nvalue = [383, 237]\nclass = 0"] ;
1 [label="Age <= 9.5\ngini = 0.302\nsamples = 404\nvalue = [329, 75]\nclass = 0"] ;
0 -> 1 [labeldistance=2.5, labelangle=45, headlabel="True"] ;
2 [label="Siblings/Spouses Aboard <= 2.5\ngini = 0.434\nsamples = 22\nvalue = [7, 15]\nclass = 1"] ;
1 -> 2 ;
3 [label="gini = 0.0\nsamples = 14\nvalue = [0, 14]\nclass = 1"] ;
2 -> 3 ;
4 [label="Parents/Children Aboard <= 1.5\ngini = 0.219\nsamples = 8\nvalue = [7, 1]\nclass = 0"] ;
2 -> 4 ;
5 [label="gini = 0.0\nsamples = 6\nvalue = [6, 0]\nclass = 0"] ;
4 -> 5 ;
6 [label="Fare <= 31.331\ngini = 0.5\nsamples = 2\nvalue = [1, 1]\nclass = 0"] ;
4 -> 6 ;
7 [label="gini = 0.0\nsamples = 1\nvalue = [1, 0]\nclass = 0"] ;
6 -> 7 ;
8 [label="gini = 0.0\nsamples = 1\nvalue = [0, 1]\nclass = 1"] ;
6 -> 8 ;
9 [label="Pclass <= 1.5\ngini = 0.265\nsamples = 382\nvalue = [322, 60]\nclass = 0"] ;
1 -> 9 ;
10 [label="Fare <= 30.598\ngini = 0.452\nsamples = 84\nvalue = [55, 29]\nclass = 0"] ;
9 -> 10 ;
11 [label="Fare <= 26.144\ngini = 0.495\nsamples = 29\nvalue = [13, 16]\nclass = 1"] ;
10 -> 11 ;
12 [label="gini = 0.0\nsamples = 6\nvalue = [6, 0]\nclass = 0"] ;
11 -> 12 ;
13 [label="Age <= 54.0\ngini = 0.423\nsamples = 23\nvalue = [7, 16]\nclass = 1"] ;
11 -> 13 ;
14 [label="Age <= 46.25\ngini = 0.332\nsamples = 19\nvalue = [4, 15]\nclass = 1"] ;
13 -> 14 ;
15 [label="Age <= 45.25\ngini = 0.391\nsamples = 15\nvalue = [4, 11]\nclass = 1"] ;
14 -> 15 ;
16 [label="Age <= 28.5\ngini = 0.337\nsamples = 14\nvalue = [3, 11]\nclass = 1"] ;
15 -> 16 ;
17 [label="gini = 0.0\nsamples = 3\nvalue = [0, 3]\nclass = 1"] ;
16 -> 17 ;
18 [label="gini = 0.397\nsamples = 11\nvalue = [3, 8]\nclass = 1"] ;
16 -> 18 ;
19 [label="gini = 0.0\nsamples = 1\nvalue = [1, 0]\nclass = 0"] ;
15 -> 19 ;
20 [label="gini = 0.0\nsamples = 4\nvalue = [0, 4]\nclass = 1"] ;
14 -> 20 ;
21 [label="Age <= 72.0\ngini = 0.375\nsamples = 4\nvalue = [3, 1]\nclass = 0"] ;
13 -> 21 ;
22 [label="gini = 0.0\nsamples = 3\nvalue = [3, 0]\nclass = 0"] ;
21 -> 22 ;
23 [label="gini = 0.0\nsamples = 1\nvalue = [0, 1]\nclass = 1"] ;
21 -> 23 ;
24 [label="Age <= 41.0\ngini = 0.361\nsamples = 55\nvalue = [42, 13]\nclass = 0"] ;
10 -> 24 ;
25 [label="Age <= 17.5\ngini = 0.477\nsamples = 28\nvalue = [17, 11]\nclass = 0"] ;
24 -> 25 ;
26 [label="gini = 0.0\nsamples = 2\nvalue = [0, 2]\nclass = 1"] ;
25 -> 26 ;
27 [label="Fare <= 379.925\ngini = 0.453\nsamples = 26\nvalue = [17, 9]\nclass = 0"] ;
25 -> 27 ;
28 [label="Fare <= 127.817\ngini = 0.435\nsamples = 25\nvalue = [17, 8]\nclass = 0"] ;
27 -> 28 ;
29 [label="Parents/Children Aboard <= 0.5\ngini = 0.472\nsamples = 21\nvalue = [13, 8]\nclass = 0"] ;
28 -> 29 ;
30 [label="gini = 0.432\nsamples = 19\nvalue = [13, 6]\nclass = 0"] ;
29 -> 30 ;
31 [label="gini = 0.0\nsamples = 2\nvalue = [0, 2]\nclass = 1"] ;
29 -> 31 ;
32 [label="gini = 0.0\nsamples = 4\nvalue = [4, 0]\nclass = 0"] ;
28 -> 32 ;
33 [label="gini = 0.0\nsamples = 1\nvalue = [0, 1]\nclass = 1"] ;
27 -> 33 ;
34 [label="Siblings/Spouses Aboard <= 0.5\ngini = 0.137\nsamples = 27\nvalue = [25, 2]\nclass = 0"] ;
24 -> 34 ;
35 [label="gini = 0.0\nsamples = 16\nvalue = [16, 0]\nclass = 0"] ;
34 -> 35 ;
36 [label="Age <= 49.5\ngini = 0.298\nsamples = 11\nvalue = [9, 2]\nclass = 0"] ;
34 -> 36 ;
37 [label="Age <= 47.0\ngini = 0.444\nsamples = 6\nvalue = [4, 2]\nclass = 0"] ;
36 -> 37 ;
38 [label="gini = 0.0\nsamples = 4\nvalue = [4, 0]\nclass = 0"] ;
37 -> 38 ;
39 [label="gini = 0.0\nsamples = 2\nvalue = [0, 2]\nclass = 1"] ;
37 -> 39 ;
40 [label="gini = 0.0\nsamples = 5\nvalue = [5, 0]\nclass = 0"] ;
36 -> 40 ;
41 [label="Fare <= 51.698\ngini = 0.186\nsamples = 298\nvalue = [267, 31]\nclass = 0"] ;
9 -> 41 ;
42 [label="Fare <= 13.931\ngini = 0.175\nsamples = 289\nvalue = [261, 28]\nclass = 0"] ;
41 -> 42 ;
43 [label="Age <= 13.5\ngini = 0.2\nsamples = 231\nvalue = [205, 26]\nclass = 0"] ;
42 -> 43 ;
44 [label="gini = 0.0\nsamples = 1\nvalue = [0, 1]\nclass = 1"] ;
43 -> 44 ;
45 [label="Fare <= 13.681\ngini = 0.194\nsamples = 230\nvalue = [205, 25]\nclass = 0"] ;
43 -> 45 ;
46 [label="Fare <= 7.91\ngini = 0.188\nsamples = 229\nvalue = [205, 24]\nclass = 0"] ;
45 -> 46 ;
47 [label="Age <= 29.5\ngini = 0.138\nsamples = 121\nvalue = [112, 9]\nclass = 0"] ;
46 -> 47 ;
48 [label="gini = 0.193\nsamples = 83\nvalue = [74, 9]\nclass = 0"] ;
47 -> 48 ;
49 [label="gini = 0.0\nsamples = 38\nvalue = [38, 0]\nclass = 0"] ;
47 -> 49 ;
50 [label="Fare <= 7.988\ngini = 0.239\nsamples = 108\nvalue = [93, 15]\nclass = 0"] ;
46 -> 50 ;
51 [label="gini = 0.49\nsamples = 7\nvalue = [4, 3]\nclass = 0"] ;
50 -> 51 ;
52 [label="gini = 0.209\nsamples = 101\nvalue = [89, 12]\nclass = 0"] ;
50 -> 52 ;
53 [label="gini = 0.0\nsamples = 1\nvalue = [0, 1]\nclass = 1"] ;
45 -> 53 ;
54 [label="Age <= 32.25\ngini = 0.067\nsamples = 58\nvalue = [56, 2]\nclass = 0"] ;
42 -> 54 ;
55 [label="Age <= 31.5\ngini = 0.121\nsamples = 31\nvalue = [29, 2]\nclass = 0"] ;
54 -> 55 ;
56 [label="Siblings/Spouses Aboard <= 0.5\ngini = 0.067\nsamples = 29\nvalue = [28, 1]\nclass = 0"] ;
55 -> 56 ;
57 [label="Age <= 24.5\ngini = 0.165\nsamples = 11\nvalue = [10, 1]\nclass = 0"] ;
56 -> 57 ;
58 [label="gini = 0.0\nsamples = 5\nvalue = [5, 0]\nclass = 0"] ;
57 -> 58 ;
59 [label="gini = 0.278\nsamples = 6\nvalue = [5, 1]\nclass = 0"] ;
57 -> 59 ;
60 [label="gini = 0.0\nsamples = 18\nvalue = [18, 0]\nclass = 0"] ;
56 -> 60 ;
61 [label="Fare <= 20.925\ngini = 0.5\nsamples = 2\nvalue = [1, 1]\nclass = 0"] ;
55 -> 61 ;
62 [label="gini = 0.0\nsamples = 1\nvalue = [1, 0]\nclass = 0"] ;
61 -> 62 ;
63 [label="gini = 0.0\nsamples = 1\nvalue = [0, 1]\nclass = 1"] ;
61 -> 63 ;
64 [label="gini = 0.0\nsamples = 27\nvalue = [27, 0]\nclass = 0"] ;
54 -> 64 ;
65 [label="Age <= 30.0\ngini = 0.444\nsamples = 9\nvalue = [6, 3]\nclass = 0"] ;
41 -> 65 ;
66 [label="gini = 0.0\nsamples = 5\nvalue = [5, 0]\nclass = 0"] ;
65 -> 66 ;
67 [label="Fare <= 64.998\ngini = 0.375\nsamples = 4\nvalue = [1, 3]\nclass = 1"] ;
65 -> 67 ;
68 [label="gini = 0.0\nsamples = 3\nvalue = [0, 3]\nclass = 1"] ;
67 -> 68 ;
69 [label="gini = 0.0\nsamples = 1\nvalue = [1, 0]\nclass = 0"] ;
67 -> 69 ;
70 [label="Pclass <= 2.5\ngini = 0.375\nsamples = 216\nvalue = [54, 162]\nclass = 1"] ;
0 -> 70 [labeldistance=2.5, labelangle=-45, headlabel="False"] ;
71 [label="Age <= 2.5\ngini = 0.123\nsamples = 121\nvalue = [8, 113]\nclass = 1"] ;
70 -> 71 ;
72 [label="gini = 0.0\nsamples = 1\nvalue = [1, 0]\nclass = 0"] ;
71 -> 72 ;
73 [label="Fare <= 28.856\ngini = 0.11\nsamples = 120\nvalue = [7, 113]\nclass = 1"] ;
71 -> 73 ;
74 [label="Fare <= 28.231\ngini = 0.227\nsamples = 46\nvalue = [6, 40]\nclass = 1"] ;
73 -> 74 ;
75 [label="Age <= 37.0\ngini = 0.198\nsamples = 45\nvalue = [5, 40]\nclass = 1"] ;
74 -> 75 ;
76 [label="Age <= 27.5\ngini = 0.111\nsamples = 34\nvalue = [2, 32]\nclass = 1"] ;
75 -> 76 ;
77 [label="Age <= 23.5\ngini = 0.188\nsamples = 19\nvalue = [2, 17]\nclass = 1"] ;
76 -> 77 ;
78 [label="gini = 0.0\nsamples = 11\nvalue = [0, 11]\nclass = 1"] ;
77 -> 78 ;
79 [label="Fare <= 23.5\ngini = 0.375\nsamples = 8\nvalue = [2, 6]\nclass = 1"] ;
77 -> 79 ;
80 [label="gini = 0.444\nsamples = 6\nvalue = [2, 4]\nclass = 1"] ;
79 -> 80 ;
81 [label="gini = 0.0\nsamples = 2\nvalue = [0, 2]\nclass = 1"] ;
79 -> 81 ;
82 [label="gini = 0.0\nsamples = 15\nvalue = [0, 15]\nclass = 1"] ;
76 -> 82 ;
83 [label="Fare <= 13.25\ngini = 0.397\nsamples = 11\nvalue = [3, 8]\nclass = 1"] ;
75 -> 83 ;
84 [label="Age <= 44.0\ngini = 0.444\nsamples = 3\nvalue = [2, 1]\nclass = 0"] ;
83 -> 84 ;
85 [label="gini = 0.0\nsamples = 1\nvalue = [1, 0]\nclass = 0"] ;
84 -> 85 ;
86 [label="Age <= 53.5\ngini = 0.5\nsamples = 2\nvalue = [1, 1]\nclass = 0"] ;
84 -> 86 ;
87 [label="gini = 0.0\nsamples = 1\nvalue = [0, 1]\nclass = 1"] ;
86 -> 87 ;
88 [label="gini = 0.0\nsamples = 1\nvalue = [1, 0]\nclass = 0"] ;
86 -> 88 ;
89 [label="Age <= 44.5\ngini = 0.219\nsamples = 8\nvalue = [1, 7]\nclass = 1"] ;
83 -> 89 ;
90 [label="Age <= 43.0\ngini = 0.444\nsamples = 3\nvalue = [1, 2]\nclass = 1"] ;
89 -> 90 ;
91 [label="gini = 0.0\nsamples = 2\nvalue = [0, 2]\nclass = 1"] ;
90 -> 91 ;
92 [label="gini = 0.0\nsamples = 1\nvalue = [1, 0]\nclass = 0"] ;
90 -> 92 ;
93 [label="gini = 0.0\nsamples = 5\nvalue = [0, 5]\nclass = 1"] ;
89 -> 93 ;
94 [label="gini = 0.0\nsamples = 1\nvalue = [1, 0]\nclass = 0"] ;
74 -> 94 ;
95 [label="Parents/Children Aboard <= 1.5\ngini = 0.027\nsamples = 74\nvalue = [1, 73]\nclass = 1"] ;
73 -> 95 ;
96 [label="gini = 0.0\nsamples = 60\nvalue = [0, 60]\nclass = 1"] ;
95 -> 96 ;
97 [label="Age <= 24.5\ngini = 0.133\nsamples = 14\nvalue = [1, 13]\nclass = 1"] ;
95 -> 97 ;
98 [label="gini = 0.0\nsamples = 10\nvalue = [0, 10]\nclass = 1"] ;
97 -> 98 ;
99 [label="Age <= 30.5\ngini = 0.375\nsamples = 4\nvalue = [1, 3]\nclass = 1"] ;
97 -> 99 ;
100 [label="gini = 0.0\nsamples = 1\nvalue = [1, 0]\nclass = 0"] ;
99 -> 100 ;
101 [label="gini = 0.0\nsamples = 3\nvalue = [0, 3]\nclass = 1"] ;
99 -> 101 ;
102 [label="Fare <= 23.35\ngini = 0.5\nsamples = 95\nvalue = [46, 49]\nclass = 1"] ;
70 -> 102 ;
103 [label="Age <= 6.5\ngini = 0.466\nsamples = 73\nvalue = [27, 46]\nclass = 1"] ;
102 -> 103 ;
104 [label="gini = 0.0\nsamples = 7\nvalue = [0, 7]\nclass = 1"] ;
103 -> 104 ;
105 [label="Fare <= 8.083\ngini = 0.483\nsamples = 66\nvalue = [27, 39]\nclass = 1"] ;
103 -> 105 ;
106 [label="Age <= 27.5\ngini = 0.389\nsamples = 34\nvalue = [9, 25]\nclass = 1"] ;
105 -> 106 ;
107 [label="Fare <= 7.802\ngini = 0.302\nsamples = 27\nvalue = [5, 22]\nclass = 1"] ;
106 -> 107 ;
108 [label="Fare <= 7.763\ngini = 0.401\nsamples = 18\nvalue = [5, 13]\nclass = 1"] ;
107 -> 108 ;
109 [label="Age <= 20.5\ngini = 0.32\nsamples = 15\nvalue = [3, 12]\nclass = 1"] ;
108 -> 109 ;
110 [label="gini = 0.0\nsamples = 6\nvalue = [0, 6]\nclass = 1"] ;
109 -> 110 ;
111 [label="gini = 0.444\nsamples = 9\nvalue = [3, 6]\nclass = 1"] ;
109 -> 111 ;
112 [label="Age <= 20.0\ngini = 0.444\nsamples = 3\nvalue = [2, 1]\nclass = 0"] ;
108 -> 112 ;
113 [label="gini = 0.0\nsamples = 1\nvalue = [1, 0]\nclass = 0"] ;
112 -> 113 ;
114 [label="gini = 0.5\nsamples = 2\nvalue = [1, 1]\nclass = 0"] ;
112 -> 114 ;
115 [label="gini = 0.0\nsamples = 9\nvalue = [0, 9]\nclass = 1"] ;
107 -> 115 ;
116 [label="Fare <= 7.744\ngini = 0.49\nsamples = 7\nvalue = [4, 3]\nclass = 0"] ;
106 -> 116 ;
117 [label="gini = 0.0\nsamples = 2\nvalue = [0, 2]\nclass = 1"] ;
116 -> 117 ;
118 [label="Age <= 30.75\ngini = 0.32\nsamples = 5\nvalue = [4, 1]\nclass = 0"] ;
116 -> 118 ;
119 [label="gini = 0.0\nsamples = 2\nvalue = [2, 0]\nclass = 0"] ;
118 -> 119 ;
120 [label="Fare <= 7.769\ngini = 0.444\nsamples = 3\nvalue = [2, 1]\nclass = 0"] ;
118 -> 120 ;
121 [label="gini = 0.0\nsamples = 1\nvalue = [1, 0]\nclass = 0"] ;
120 -> 121 ;
122 [label="gini = 0.5\nsamples = 2\nvalue = [1, 1]\nclass = 0"] ;
120 -> 122 ;
123 [label="Fare <= 15.373\ngini = 0.492\nsamples = 32\nvalue = [18, 14]\nclass = 0"] ;
105 -> 123 ;
124 [label="Age <= 55.0\ngini = 0.388\nsamples = 19\nvalue = [14, 5]\nclass = 0"] ;
123 -> 124 ;
125 [label="Age <= 35.0\ngini = 0.346\nsamples = 18\nvalue = [14, 4]\nclass = 0"] ;
124 -> 125 ;
126 [label="Parents/Children Aboard <= 1.5\ngini = 0.391\nsamples = 15\nvalue = [11, 4]\nclass = 0"] ;
125 -> 126 ;
127 [label="gini = 0.337\nsamples = 14\nvalue = [11, 3]\nclass = 0"] ;
126 -> 127 ;
128 [label="gini = 0.0\nsamples = 1\nvalue = [0, 1]\nclass = 1"] ;
126 -> 128 ;
129 [label="gini = 0.0\nsamples = 3\nvalue = [3, 0]\nclass = 0"] ;
125 -> 129 ;
130 [label="gini = 0.0\nsamples = 1\nvalue = [0, 1]\nclass = 1"] ;
124 -> 130 ;
131 [label="Age <= 30.0\ngini = 0.426\nsamples = 13\nvalue = [4, 9]\nclass = 1"] ;
123 -> 131 ;
132 [label="Fare <= 15.8\ngini = 0.494\nsamples = 9\nvalue = [4, 5]\nclass = 1"] ;
131 -> 132 ;
133 [label="gini = 0.0\nsamples = 2\nvalue = [0, 2]\nclass = 1"] ;
132 -> 133 ;
134 [label="Age <= 21.0\ngini = 0.49\nsamples = 7\nvalue = [4, 3]\nclass = 0"] ;
132 -> 134 ;
135 [label="gini = 0.0\nsamples = 2\nvalue = [2, 0]\nclass = 0"] ;
134 -> 135 ;
136 [label="gini = 0.48\nsamples = 5\nvalue = [2, 3]\nclass = 1"] ;
134 -> 136 ;
137 [label="gini = 0.0\nsamples = 4\nvalue = [0, 4]\nclass = 1"] ;
131 -> 137 ;
138 [label="Parents/Children Aboard <= 0.5\ngini = 0.236\nsamples = 22\nvalue = [19, 3]\nclass = 0"] ;
102 -> 138 ;
139 [label="gini = 0.0\nsamples = 1\nvalue = [0, 1]\nclass = 1"] ;
138 -> 139 ;
140 [label="Fare <= 31.331\ngini = 0.172\nsamples = 21\nvalue = [19, 2]\nclass = 0"] ;
138 -> 140 ;
141 [label="gini = 0.0\nsamples = 12\nvalue = [12, 0]\nclass = 0"] ;
140 -> 141 ;
142 [label="Fare <= 32.881\ngini = 0.346\nsamples = 9\nvalue = [7, 2]\nclass = 0"] ;
140 -> 142 ;
143 [label="gini = 0.0\nsamples = 2\nvalue = [0, 2]\nclass = 1"] ;
142 -> 143 ;
144 [label="gini = 0.0\nsamples = 7\nvalue = [7, 0]\nclass = 0"] ;
142 -> 144 ;
}